|--- feature_8610 <= 0.50
|   |--- feature_5517 <= 0.50
|   |   |--- feature_7403 <= 0.50
|   |   |   |--- feature_9894 <= 0.50
|   |   |   |   |--- feature_5102 <= 0.50
|   |   |   |   |   |--- feature_5962 <= 0.50
|   |   |   |   |   |   |--- feature_3501 <= 0.50
|   |   |   |   |   |   |   |--- class: 0
|   |   |   |   |   |   |--- feature_3501 >  0.50
|   |   |   |   |   |   |   |--- class: 2
|   |   |   |   |   |--- feature_5962 >  0.50
|   |   |   |   |   |   |--- feature_2977 <= 0.50
|   |   |   |   |   |   |   |--- class: 0
|   |   |   |   |   |   |--- feature_2977 >  0.50
|   |   |   |   |   |   |   |--- class: 0
|   |   |   |   |--- feature_5102 >  0.50
|   |   |   |   |   |--- feature_1211 <= 0.50
|   |   |   |   |   |   |--- feature_9641 <= 0.50
|   |   |   |   |   |   |   |--- class: 2
|   |   |   |   |   |   |--- feature_9641 >  0.50
|   |   |   |   |   |   |   |--- class: 0
|   |   |   |   |   |--- feature_1211 >  0.50
|   |   |   |   |   |   |--- feature_8781 <= 0.50
|   |   |   |   |   |   |   |--- class: 0
|   |   |   |   |   |   |--- feature_8781 >  0.50
|   |   |   |   |   |   |   |--- class: 0
|   |   |   |--- feature_9894 >  0.50
|   |   |   |   |--- feature_8014 <= 0.50
|   |   |   |   |   |--- feature_1211 <= 0.50
|   |   |   |   |   |   |--- feature_3792 <= 0.50
|   |   |   |   |   |   |   |--- class: 2
|   |   |   |   |   |   |--- feature_3792 >  0.50
|   |   |   |   |   |   |   |--- class: 0
|   |   |   |   |   |--- feature_1211 >  0.50
|   |   |   |   |   |   |--- feature_8781 <= 0.50
|   |   |   |   |   |   |   |--- class: 2
|   |   |   |   |   |   |--- feature_8781 >  0.50
|   |   |   |   |   |   |   |--- class: 0
|   |   |   |   |--- feature_8014 >  0.50
|   |   |   |   |   |--- feature_4201 <= 0.50
|   |   |   |   |   |   |--- feature_5033 <= 0.50
|   |   |   |   |   |   |   |--- class: 0
|   |   |   |   |   |   |--- feature_5033 >  0.50
|   |   |   |   |   |   |   |--- class: 0
|   |   |   |   |   |--- feature_4201 >  0.50
|   |   |   |   |   |   |--- feature_2408 <= 0.50
|   |   |   |   |   |   |   |--- class: 0
|   |   |   |   |   |   |--- feature_2408 >  0.50
|   |   |   |   |   |   |   |--- class: 2
|   |   |--- feature_7403 >  0.50
|   |   |   |--- feature_1211 <= 0.50
|   |   |   |   |--- feature_3754 <= 0.50
|   |   |   |   |   |--- feature_9894 <= 0.50
|   |   |   |   |   |   |--- feature_7884 <= 0.50
|   |   |   |   |   |   |   |--- class: 0
|   |   |   |   |   |   |--- feature_7884 >  0.50
|   |   |   |   |   |   |   |--- class: 2
|   |   |   |   |   |--- feature_9894 >  0.50
|   |   |   |   |   |   |--- feature_7902 <= 0.50
|   |   |   |   |   |   |   |--- class: 0
|   |   |   |   |   |   |--- feature_7902 >  0.50
|   |   |   |   |   |   |   |--- class: 2
|   |   |   |   |--- feature_3754 >  0.50
|   |   |   |   |   |--- feature_7480 <= 0.50
|   |   |   |   |   |   |--- feature_2960 <= 0.50
|   |   |   |   |   |   |   |--- class: 0
|   |   |   |   |   |   |--- feature_2960 >  0.50
|   |   |   |   |   |   |   |--- class: 2
|   |   |   |   |   |--- feature_7480 >  0.50
|   |   |   |   |   |   |--- feature_9646 <= 0.50
|   |   |   |   |   |   |   |--- class: 2
|   |   |   |   |   |   |--- feature_9646 >  0.50
|   |   |   |   |   |   |   |--- class: 0
|   |   |   |--- feature_1211 >  0.50
|   |   |   |   |--- feature_826 <= 0.50
|   |   |   |   |   |--- feature_3501 <= 0.50
|   |   |   |   |   |   |--- feature_9932 <= 0.50
|   |   |   |   |   |   |   |--- class: 0
|   |   |   |   |   |   |--- feature_9932 >  0.50
|   |   |   |   |   |   |   |--- class: 2
|   |   |   |   |   |--- feature_3501 >  0.50
|   |   |   |   |   |   |--- feature_6221 <= 0.50
|   |   |   |   |   |   |   |--- class: 0
|   |   |   |   |   |   |--- feature_6221 >  0.50
|   |   |   |   |   |   |   |--- class: 2
|   |   |   |   |--- feature_826 >  0.50
|   |   |   |   |   |--- feature_8625 <= 0.50
|   |   |   |   |   |   |--- feature_3237 <= 0.50
|   |   |   |   |   |   |   |--- class: 0
|   |   |   |   |   |   |--- feature_3237 >  0.50
|   |   |   |   |   |   |   |--- class: 2
|   |   |   |   |   |--- feature_8625 >  0.50
|   |   |   |   |   |   |--- class: 2
|   |--- feature_5517 >  0.50
|   |   |--- feature_9894 <= 0.50
|   |   |   |--- feature_9803 <= 0.50
|   |   |   |   |--- feature_9903 <= 0.50
|   |   |   |   |   |--- feature_4436 <= 0.50
|   |   |   |   |   |   |--- feature_3501 <= 0.50
|   |   |   |   |   |   |   |--- class: 0
|   |   |   |   |   |   |--- feature_3501 >  0.50
|   |   |   |   |   |   |   |--- class: 0
|   |   |   |   |   |--- feature_4436 >  0.50
|   |   |   |   |   |   |--- feature_4069 <= 0.50
|   |   |   |   |   |   |   |--- class: 0
|   |   |   |   |   |   |--- feature_4069 >  0.50
|   |   |   |   |   |   |   |--- class: 2
|   |   |   |   |--- feature_9903 >  0.50
|   |   |   |   |   |--- feature_9512 <= 0.50
|   |   |   |   |   |   |--- feature_9834 <= 0.50
|   |   |   |   |   |   |   |--- class: 0
|   |   |   |   |   |   |--- feature_9834 >  0.50
|   |   |   |   |   |   |   |--- class: 2
|   |   |   |   |   |--- feature_9512 >  0.50
|   |   |   |   |   |   |--- class: 2
|   |   |   |--- feature_9803 >  0.50
|   |   |   |   |--- feature_9903 <= 0.50
|   |   |   |   |   |--- feature_7044 <= 0.50
|   |   |   |   |   |   |--- feature_4611 <= 0.50
|   |   |   |   |   |   |   |--- class: 0
|   |   |   |   |   |   |--- feature_4611 >  0.50
|   |   |   |   |   |   |   |--- class: 2
|   |   |   |   |   |--- feature_7044 >  0.50
|   |   |   |   |   |   |--- class: 0
|   |   |   |   |--- feature_9903 >  0.50
|   |   |   |   |   |--- feature_9478 <= 0.50
|   |   |   |   |   |   |--- class: 2
|   |   |   |   |   |--- feature_9478 >  0.50
|   |   |   |   |   |   |--- class: 0
|   |   |--- feature_9894 >  0.50
|   |   |   |--- feature_3501 <= 0.50
|   |   |   |   |--- feature_3874 <= 0.50
|   |   |   |   |   |--- feature_9512 <= 0.50
|   |   |   |   |   |   |--- feature_3439 <= 0.50
|   |   |   |   |   |   |   |--- class: 0
|   |   |   |   |   |   |--- feature_3439 >  0.50
|   |   |   |   |   |   |   |--- class: 2
|   |   |   |   |   |--- feature_9512 >  0.50
|   |   |   |   |   |   |--- feature_7773 <= 0.50
|   |   |   |   |   |   |   |--- class: 2
|   |   |   |   |   |   |--- feature_7773 >  0.50
|   |   |   |   |   |   |   |--- class: 0
|   |   |   |   |--- feature_3874 >  0.50
|   |   |   |   |   |--- feature_4953 <= 0.50
|   |   |   |   |   |   |--- feature_8619 <= 0.50
|   |   |   |   |   |   |   |--- class: 2
|   |   |   |   |   |   |--- feature_8619 >  0.50
|   |   |   |   |   |   |   |--- class: 0
|   |   |   |   |   |--- feature_4953 >  0.50
|   |   |   |   |   |   |--- class: 0
|   |   |   |--- feature_3501 >  0.50
|   |   |   |   |--- feature_9903 <= 0.50
|   |   |   |   |   |--- feature_9501 <= 0.50
|   |   |   |   |   |   |--- feature_7034 <= 0.50
|   |   |   |   |   |   |   |--- class: 0
|   |   |   |   |   |   |--- feature_7034 >  0.50
|   |   |   |   |   |   |   |--- class: 2
|   |   |   |   |   |--- feature_9501 >  0.50
|   |   |   |   |   |   |--- class: 2
|   |   |   |   |--- feature_9903 >  0.50
|   |   |   |   |   |--- feature_3799 <= 0.50
|   |   |   |   |   |   |--- feature_728 <= 0.50
|   |   |   |   |   |   |   |--- class: 2
|   |   |   |   |   |   |--- feature_728 >  0.50
|   |   |   |   |   |   |   |--- class: 0
|   |   |   |   |   |--- feature_3799 >  0.50
|   |   |   |   |   |   |--- feature_7001 <= 0.50
|   |   |   |   |   |   |   |--- class: 0
|   |   |   |   |   |   |--- feature_7001 >  0.50
|   |   |   |   |   |   |   |--- class: 2
|--- feature_8610 >  0.50
|   |--- feature_1211 <= 0.50
|   |   |--- feature_5517 <= 0.50
|   |   |   |--- feature_7403 <= 0.50
|   |   |   |   |--- feature_5962 <= 0.50
|   |   |   |   |   |--- feature_619 <= 0.50
|   |   |   |   |   |   |--- feature_8014 <= 0.50
|   |   |   |   |   |   |   |--- class: 2
|   |   |   |   |   |   |--- feature_8014 >  0.50
|   |   |   |   |   |   |   |--- class: 0
|   |   |   |   |   |--- feature_619 >  0.50
|   |   |   |   |   |   |--- feature_308 <= 0.50
|   |   |   |   |   |   |   |--- class: 0
|   |   |   |   |   |   |--- feature_308 >  0.50
|   |   |   |   |   |   |   |--- class: 2
|   |   |   |   |--- feature_5962 >  0.50
|   |   |   |   |   |--- feature_5729 <= 1.50
|   |   |   |   |   |   |--- feature_8786 <= 0.50
|   |   |   |   |   |   |   |--- class: 2
|   |   |   |   |   |   |--- feature_8786 >  0.50
|   |   |   |   |   |   |   |--- class: 0
|   |   |   |   |   |--- feature_5729 >  1.50
|   |   |   |   |   |   |--- feature_4191 <= 0.50
|   |   |   |   |   |   |   |--- class: 0
|   |   |   |   |   |   |--- feature_4191 >  0.50
|   |   |   |   |   |   |   |--- class: 2
|   |   |   |--- feature_7403 >  0.50
|   |   |   |   |--- feature_5813 <= 0.50
|   |   |   |   |   |--- feature_7043 <= 0.50
|   |   |   |   |   |   |--- feature_9286 <= 1.50
|   |   |   |   |   |   |   |--- class: 0
|   |   |   |   |   |   |--- feature_9286 >  1.50
|   |   |   |   |   |   |   |--- class: 2
|   |   |   |   |   |--- feature_7043 >  0.50
|   |   |   |   |   |   |--- class: 2
|   |   |   |   |--- feature_5813 >  0.50
|   |   |   |   |   |--- class: 2
|   |   |--- feature_5517 >  0.50
|   |   |   |--- feature_9894 <= 0.50
|   |   |   |   |--- feature_9018 <= 0.50
|   |   |   |   |   |--- feature_8558 <= 0.50
|   |   |   |   |   |   |--- feature_9834 <= 0.50
|   |   |   |   |   |   |   |--- class: 0
|   |   |   |   |   |   |--- feature_9834 >  0.50
|   |   |   |   |   |   |   |--- class: 2
|   |   |   |   |   |--- feature_8558 >  0.50
|   |   |   |   |   |   |--- class: 2
|   |   |   |   |--- feature_9018 >  0.50
|   |   |   |   |   |--- class: 2
|   |   |   |--- feature_9894 >  0.50
|   |   |   |   |--- feature_5121 <= 0.50
|   |   |   |   |   |--- feature_9185 <= 0.50
|   |   |   |   |   |   |--- feature_9453 <= 0.50
|   |   |   |   |   |   |   |--- class: 2
|   |   |   |   |   |   |--- feature_9453 >  0.50
|   |   |   |   |   |   |   |--- class: 0
|   |   |   |   |   |--- feature_9185 >  0.50
|   |   |   |   |   |   |--- class: 2
|   |   |   |   |--- feature_5121 >  0.50
|   |   |   |   |   |--- feature_5086 <= 0.50
|   |   |   |   |   |   |--- class: 0
|   |   |   |   |   |--- feature_5086 >  0.50
|   |   |   |   |   |   |--- class: 2
|   |--- feature_1211 >  0.50
|   |   |--- feature_5127 <= 0.50
|   |   |   |--- feature_7403 <= 0.50
|   |   |   |   |--- feature_5517 <= 0.50
|   |   |   |   |   |--- feature_9894 <= 0.50
|   |   |   |   |   |   |--- feature_3482 <= 0.50
|   |   |   |   |   |   |   |--- class: 2
|   |   |   |   |   |   |--- feature_3482 >  0.50
|   |   |   |   |   |   |   |--- class: 0
|   |   |   |   |   |--- feature_9894 >  0.50
|   |   |   |   |   |   |--- feature_9009 <= 0.50
|   |   |   |   |   |   |   |--- class: 2
|   |   |   |   |   |   |--- feature_9009 >  0.50
|   |   |   |   |   |   |   |--- class: 0
|   |   |   |   |--- feature_5517 >  0.50
|   |   |   |   |   |--- feature_9478 <= 0.50
|   |   |   |   |   |   |--- feature_4736 <= 0.50
|   |   |   |   |   |   |   |--- class: 0
|   |   |   |   |   |   |--- feature_4736 >  0.50
|   |   |   |   |   |   |   |--- class: 2
|   |   |   |   |   |--- feature_9478 >  0.50
|   |   |   |   |   |   |--- class: 2
|   |   |   |--- feature_7403 >  0.50
|   |   |   |   |--- feature_6112 <= 0.50
|   |   |   |   |   |--- feature_579 <= 0.50
|   |   |   |   |   |   |--- feature_5297 <= 0.50
|   |   |   |   |   |   |   |--- class: 0
|   |   |   |   |   |   |--- feature_5297 >  0.50
|   |   |   |   |   |   |   |--- class: 2
|   |   |   |   |   |--- feature_579 >  0.50
|   |   |   |   |   |   |--- class: 2
|   |   |   |   |--- feature_6112 >  0.50
|   |   |   |   |   |--- class: 2
|   |   |--- feature_5127 >  0.50
|   |   |   |--- class: 0

